net 
{
    node_size = (76 36);
}

node NEUROTICISM
{
    label = "NEUROTICISM";
    position = (74 533);
    states = ("One"  "Two"  "Three"  "Four"  "Five");
}

node conscientiousness
{
    label = "CONSCIENTIOUSNESS";
    position = (82 354);
    states = ("One"  "Two"  "Three"  "Four"  "Five");
}

node emotional_arousal
{
    label = "EMOTIONAL AROUSAL";
    position = (266 532);
    states = ("One"  "Two"  "Three"  "Four"  "Five"  "Six");
}

node extraversion
{
    label = "EXTRAVERSION";
    position = (443 354);
    states = ("One"  "Two"  "Three"  "Four"  "Five");
}

node agreeableness
{
    label = "AGREEABLENESS";
    position = (248 173);
    states = ("One"  "Two"  "Three"  "Four"  "Five");
}

node openness
{
    label = "OPENNESS";
    position = (80 176);
    states = ("One"  "Two"  "Three"  "Four"  "Five");
}

node goal_setting
{
    label = "GOAL SETTING";
    position = (660 282);
    states = ("One"  "Two"  "Three"  "Four"  "Five"  "Six");
}

node self_conf
{
    label = "SELF CONFIDENCE";
    position = (443 172);
    states = ("One"  "Two"  "Three"  "Four"  "Five"  "Six");
}

node mental_practice
{
    label = "MENTAL PRACTICE";
    position = (216 -7);
    states = ("One"  "Two"  "Three"  "Four"  "Five"  "Six");
}

node match_preparation
{
    label = "MATCH PREPARATION";
    position = (448 -13);
    states = ("One"  "Two"  "Three"  "Four"  "Five"  "Six");
}

node self_talk
{
    label = "SELF TALK";
    position = (653 -18);
    states = ("One"  "Two"  "Three"  "Four"  "Five"  "Six");
}

node concentration_disruption
{
    label = "CONCENTRATION DISRUPTION";
    position = (525 529);
    states = ("One"  "Two"  "Three"  "Four"  "Five"  "Six");
}

node worry
{
    label = "WORRY";
    position = (257 343);
    states = ("One"  "Two"  "Three"  "Four"  "Five"  "Six");
}

node self_esteem
{
    label = "SELF ESTEEM";
    position = (659 128);
    states = ("One"  "Two"  "Three"  "Four");
}

potential (NEUROTICISM |)
{
    data = (0.03151515 0.21333333 0.45575758 0.27393939 0.02545455);
}

potential (conscientiousness | NEUROTICISM)
{
    data = ((0.39230769 0.58461538 0.00769231 0.00769231 0.00769231)
        (0.05795455 0.42727273 0.37045455 0.14318182 0.00113636)
        (0.00053191 0.27978723 0.54574468 0.17340426 0.00053191)
        (0.02300885 0.24424779 0.48761062 0.24424779 0.00088496)
        (0.00952381 0.00952381 0.24761905 0.72380952 0.00952381));
}

potential (emotional_arousal |)
{
    data = (0.01919192 0.15858586 0.34646465 0.32222222 0.09797980 
        0.05555556);
}

potential (extraversion | emotional_arousal)
{
    data = ((0.01052632 0.64210525 0.01052632 0.32631579 0.01052632)
        (0.15414013 0.34522293 0.42165605 0.03949045 0.03949045)
        (0.00058309 0.24548105 0.49037901 0.15801749 0.10553936)
        (0.00062696 0.07586207 0.39561129 0.35799373 0.16990596)
        (0.00206186 0.00206186 0.24948454 0.49690722 0.24948454)
        (0.00363636 0.00363636 0.22181818 0.00363636 0.76727273));
}

potential (agreeableness | conscientiousness extraversion)
{
    data = (((0.96923077 0.00769231 0.00769231 0.00769231 0.00769231)
        (0.00263158 0.98947368 0.00263158 0.00263158 0.00263158)
        (0.00769231 0.00769231 0.96923077 0.00769231 0.00769231)
        (0.20000000 0.20000000 0.20000000 0.20000000 0.20000000)
        (0.20000000 0.20000000 0.20000000 0.20000000 0.20000000))
        ((0.00769231 0.00769231 0.00769231 0.96923077 0.00769231)
        (0.09130435 0.18188406 0.54420290 0.18188406 0.00072464)
        (0.00042017 0.05294118 0.68319328 0.21050420 0.05294118)
        (0.00079681 0.00079681 0.29960159 0.39920319 0.29960159)
        (0.00088496 0.22212389 0.22212389 0.55398230 0.00088496))
        ((0.00769231 0.00769231 0.00769231 0.00769231 0.96923077)
        (0.00079681 0.20000000 0.39920319 0.39920319 0.00079681)
        (0.00027548 0.06914601 0.37906336 0.51680441 0.03471074)
        (0.00039920 0.00039920 0.44950100 0.49940120 0.05029940)
        (0.00046948 0.00046948 0.23521127 0.64600939 0.11784038))
        ((0.00769231 0.00769231 0.96923077 0.00769231 0.00769231)
        (0.00158730 0.20000000 0.39841270 0.39841270 0.00158730)
        (0.00046948 0.00046948 0.35258216 0.52863850 0.11784038)
        (0.00099502 0.12537313 0.49850746 0.37412935 0.00099502)
        (0.00769231 0.00769231 0.00769231 0.96923077 0.00769231))
        ((0.20000000 0.20000000 0.20000000 0.20000000 0.20000000)
        (0.20000000 0.20000000 0.20000000 0.20000000 0.20000000)
        (0.20000000 0.20000000 0.20000000 0.20000000 0.20000000)
        (0.20000000 0.20000000 0.20000000 0.20000000 0.20000000)
        (0.20000000 0.20000000 0.20000000 0.20000000 0.20000000)));
}

potential (openness | conscientiousness)
{
    data = ((0.20000000 0.77692308 0.00769231 0.00769231 0.00769231)
        (0.04063745 0.20000000 0.45896414 0.27968127 0.02071713)
        (0.00051813 0.16891192 0.45388601 0.33730570 0.03937824)
        (0.00124224 0.09440994 0.28074534 0.62236025 0.00124224)
        (0.20000000 0.20000000 0.20000000 0.20000000 0.20000000));
}

potential (goal_setting | emotional_arousal)
{
    data = ((0.32456140 0.32456140 0.32456140 0.00877193 0.00877193 
        0.00877193)
        (0.11571125 0.38322718 0.38322718 0.07749469 0.00106157 
        0.03927813)
        (0.03547133 0.29786200 0.29786200 0.26287658 0.08794947 
        0.01797862)
        (0.00052247 0.05694880 0.22622780 0.56478579 0.11337513 
        0.03814002)
        (0.00171821 0.00171821 0.12542955 0.37285223 0.24914089 
        0.24914089)
        (0.00303030 0.00303030 0.11212121 0.22121212 0.43939394 
        0.22121212));
}

potential (self_conf | goal_setting emotional_arousal)
{
    data = (((0.97747748 0.00450450 0.00450450 0.00450450 0.00450450 
        0.00450450)
        (0.33180428 0.66207951 0.00152905 0.00152905 0.00152905 
        0.00152905)
        (0.00228311 0.98858448 0.00228311 0.00228311 0.00228311 
        0.00228311)
        (0.16666667 0.16666667 0.16666667 0.16666667 0.16666667 
        0.16666667)
        (0.16666667 0.16666667 0.16666667 0.16666667 0.16666667 
        0.16666667)
        (0.16666667 0.16666667 0.16666667 0.16666667 0.16666667 
        0.16666667))
        ((0.00450450 0.00450450 0.97747748 0.00450450 0.00450450 
        0.00450450)
        (0.10018467 0.49907664 0.29963066 0.10018467 0.00046168 
        0.00046168)
        (0.00027189 0.23518216 0.47009244 0.23518216 0.05899946 
        0.00027189)
        (0.00152905 0.33180428 0.66207951 0.00152905 0.00152905 
        0.00152905)
        (0.16666667 0.16666667 0.16666667 0.16666667 0.16666667 
        0.16666667)
        (0.16666667 0.16666667 0.16666667 0.16666667 0.16666667 
        0.16666667))
        ((0.00450450 0.97747748 0.00450450 0.00450450 0.00450450 
        0.00450450)
        (0.00046168 0.19990766 0.49907664 0.29963066 0.00046168 
        0.00046168)
        (0.00027189 0.11772703 0.35263730 0.47009244 0.05899946 
        0.00027189)
        (0.00038491 0.00038491 0.08352579 0.58237105 0.33294842 
        0.00038491)
        (0.00228311 0.00228311 0.49543379 0.49543379 0.00228311 
        0.00228311)
        (0.00450450 0.00450450 0.00450450 0.00450450 0.97747748 
        0.00450450))
        ((0.16666667 0.16666667 0.16666667 0.16666667 0.16666667 
        0.16666667)
        (0.00228311 0.00228311 0.00228311 0.98858448 0.00228311 
        0.00228311)
        (0.00030807 0.13339495 0.13339495 0.66574245 0.00030807 
        0.06685151)
        (0.00015418 0.03345668 0.10006167 0.69950663 0.16666667 
        0.00015418)
        (0.00076805 0.00076805 0.16666667 0.33256528 0.33256528 
        0.16666667)
        (0.00228311 0.00228311 0.00228311 0.00228311 0.00228311 
        0.98858448))
        ((0.16666667 0.16666667 0.16666667 0.16666667 0.16666667 
        0.16666667)
        (0.16666667 0.16666667 0.16666667 0.16666667 0.16666667 
        0.16666667)
        (0.00092081 0.00092081 0.39871087 0.00092081 0.59760589 
        0.00092081)
        (0.00076805 0.00076805 0.16666667 0.16666667 0.16666667 
        0.49846390)
        (0.00114943 0.00114943 0.00114943 0.00114943 0.74597701 
        0.24942529)
        (0.00114943 0.00114943 0.00114943 0.24942529 0.24942529 
        0.49770115))
        ((0.16666667 0.16666667 0.16666667 0.16666667 0.16666667 
        0.16666667)
        (0.00450450 0.00450450 0.00450450 0.00450450 0.00450450 
        0.97747748)
        (0.00450450 0.00450450 0.00450450 0.00450450 0.00450450 
        0.97747748)
        (0.00228311 0.00228311 0.00228311 0.98858448 0.00228311 
        0.00228311)
        (0.00114943 0.00114943 0.00114943 0.00114943 0.24942529 
        0.74597701)
        (0.00228311 0.00228311 0.00228311 0.00228311 0.00228311 
        0.98858448)));
}

potential (mental_practice | goal_setting self_conf)
{
    data = (((0.00228311 0.98858448 0.00228311 0.00228311 0.00228311 
        0.00228311)
        (0.24942529 0.49770115 0.24942529 0.00114943 0.00114943 
        0.00114943)
        (0.16666667 0.16666667 0.16666667 0.16666667 0.16666667 
        0.16666667)
        (0.16666667 0.16666667 0.16666667 0.16666667 0.16666667 
        0.16666667)
        (0.16666667 0.16666667 0.16666667 0.16666667 0.16666667 
        0.16666667)
        (0.16666667 0.16666667 0.16666667 0.16666667 0.16666667 
        0.16666667))
        ((0.00450450 0.00450450 0.97747748 0.00450450 0.00450450 
        0.00450450)
        (0.10018467 0.89796861 0.00046168 0.00046168 0.00046168 
        0.00046168)
        (0.00033003 0.64191419 0.28547855 0.07161716 0.00033003 
        0.00033003)
        (0.00092081 0.19981584 0.59760589 0.19981584 0.00092081 
        0.00092081)
        (0.00450450 0.97747748 0.00450450 0.00450450 0.00450450 
        0.00450450)
        (0.16666667 0.16666667 0.16666667 0.16666667 0.16666667 
        0.16666667))
        ((0.16666667 0.16666667 0.16666667 0.16666667 0.16666667 
        0.16666667)
        (0.19981584 0.39871087 0.39871087 0.00092081 0.00092081 
        0.00092081)
        (0.07711443 0.76794598 0.15387349 0.00035537 0.00035537 
        0.00035537)
        (0.00024331 0.15790754 0.73600973 0.10535280 0.00024331 
        0.00024331)
        (0.16666667 0.33256528 0.49846390 0.00076805 0.00076805 
        0.00076805)
        (0.16666667 0.16666667 0.16666667 0.16666667 0.16666667 
        0.16666667))
        ((0.16666667 0.16666667 0.16666667 0.16666667 0.16666667 
        0.16666667)
        (0.00152905 0.00152905 0.33180428 0.66207951 0.00152905 
        0.00152905)
        (0.16666667 0.16666667 0.49846390 0.16666667 0.00076805 
        0.00076805)
        (0.00013217 0.11432725 0.31416865 0.57110759 0.00013217 
        0.00013217)
        (0.14295125 0.42753623 0.00065876 0.28524374 0.14295125 
        0.00065876)
        (0.00114943 0.00114943 0.24942529 0.49770115 0.24942529 
        0.00114943))
        ((0.16666667 0.16666667 0.16666667 0.16666667 0.16666667 
        0.16666667)
        (0.16666667 0.16666667 0.16666667 0.16666667 0.16666667 
        0.16666667)
        (0.00152905 0.00152905 0.99235474 0.00152905 0.00152905 
        0.00152905)
        (0.49543379 0.00228311 0.49543379 0.00228311 0.00228311 
        0.00228311)
        (0.12514418 0.00057670 0.37427912 0.37427912 0.12514418 
        0.00057670)
        (0.00076805 0.16666667 0.00076805 0.49846390 0.33256528 
        0.00076805))
        ((0.16666667 0.16666667 0.16666667 0.16666667 0.16666667 
        0.16666667)
        (0.16666667 0.16666667 0.16666667 0.16666667 0.16666667 
        0.16666667)
        (0.16666667 0.16666667 0.16666667 0.16666667 0.16666667 
        0.16666667)
        (0.00228311 0.49543379 0.00228311 0.49543379 0.00228311 
        0.00228311)
        (0.00450450 0.97747748 0.00450450 0.00450450 0.00450450 
        0.00450450)
        (0.00065876 0.00065876 0.28524374 0.00065876 0.28524374 
        0.42753623)));
}

potential (match_preparation | goal_setting mental_practice)
{
    data = (((0.00450450 0.00450450 0.97747748 0.00450450 0.00450450 
        0.00450450)
        (0.24942529 0.49770115 0.24942529 0.00114943 0.00114943 
        0.00114943)
        (0.00450450 0.00450450 0.00450450 0.97747748 0.00450450 
        0.00450450)
        (0.16666667 0.16666667 0.16666667 0.16666667 0.16666667 
        0.16666667)
        (0.16666667 0.16666667 0.16666667 0.16666667 0.16666667 
        0.16666667)
        (0.16666667 0.16666667 0.16666667 0.16666667 0.16666667 
        0.16666667))
        ((0.97747748 0.00450450 0.00450450 0.00450450 0.00450450 
        0.00450450)
        (0.05016181 0.39967638 0.29981507 0.19995377 0.00023116 
        0.05016181)
        (0.12514418 0.12514418 0.37427912 0.37427912 0.00057670 
        0.00057670)
        (0.00228311 0.49543379 0.49543379 0.00228311 0.00228311 
        0.00228311)
        (0.16666667 0.16666667 0.16666667 0.16666667 0.16666667 
        0.16666667)
        (0.16666667 0.16666667 0.16666667 0.16666667 0.16666667 
        0.16666667))
        ((0.00152905 0.33180428 0.66207951 0.00152905 0.00152905 
        0.00152905)
        (0.05899946 0.52882000 0.11772703 0.17645459 0.05899946 
        0.05899946)
        (0.00022017 0.19044474 0.42822545 0.23800088 0.14288860 
        0.00022017)
        (0.00228311 0.00228311 0.00228311 0.98858448 0.00228311 
        0.00228311)
        (0.16666667 0.16666667 0.16666667 0.16666667 0.16666667 
        0.16666667)
        (0.16666667 0.16666667 0.16666667 0.16666667 0.16666667 
        0.16666667))
        ((0.00228311 0.49543379 0.49543379 0.00228311 0.00228311 
        0.00228311)
        (0.00057670 0.49884660 0.24971165 0.12514418 0.00057670 
        0.12514418)
        (0.00028885 0.12507221 0.18746389 0.56181398 0.12507221 
        0.00028885)
        (0.00017129 0.00017129 0.25916410 0.70315176 0.00017129 
        0.03717026)
        (0.00228311 0.00228311 0.00228311 0.98858448 0.00228311 
        0.00228311)
        (0.16666667 0.16666667 0.16666667 0.16666667 0.16666667 
        0.16666667))
        ((0.00228311 0.00228311 0.49543379 0.49543379 0.00228311 
        0.00228311)
        (0.00450450 0.00450450 0.00450450 0.00450450 0.00450450 
        0.97747748)
        (0.00065876 0.00065876 0.28524374 0.71212121 0.00065876 
        0.00065876)
        (0.00076805 0.00076805 0.33256528 0.16666667 0.16666667 
        0.33256528)
        (0.00152905 0.00152905 0.00152905 0.00152905 0.66207951 
        0.33180428)
        (0.16666667 0.16666667 0.16666667 0.16666667 0.16666667 
        0.16666667))
        ((0.16666667 0.16666667 0.16666667 0.16666667 0.16666667 
        0.16666667)
        (0.00228311 0.00228311 0.49543379 0.49543379 0.00228311 
        0.00228311)
        (0.00228311 0.00228311 0.00228311 0.49543379 0.00228311 
        0.49543379)
        (0.00450450 0.00450450 0.00450450 0.97747748 0.00450450 
        0.00450450)
        (0.00228311 0.49543379 0.00228311 0.00228311 0.00228311 
        0.49543379)
        (0.00152905 0.00152905 0.00152905 0.33180428 0.33180428 
        0.33180428)));
}

potential (self_talk | match_preparation)
{
    data = ((0.19892473 0.39247312 0.19892473 0.19892473 0.00537634 
        0.00537634)
        (0.05934959 0.43983740 0.26422764 0.20569106 0.03008130 
        0.00081301)
        (0.00062893 0.27232704 0.29496855 0.34025157 0.09119497 
        0.00062893)
        (0.00046168 0.05032318 0.29963066 0.46583564 0.13342567 
        0.05032318)
        (0.00273224 0.00273224 0.29781421 0.39617486 0.19945355 
        0.10109290)
        (0.00248756 0.00248756 0.00248756 0.36069652 0.36069652 
        0.27114428));
}

potential (concentration_disruption |)
{
    data = (0.11616162 0.36464647 0.34646465 0.15252525 0.01919192 
        0.00101010);
}

potential (worry | NEUROTICISM emotional_arousal concentration_disruption)
{
    data = ((((0.16666667 0.16666667 0.16666667 0.16666667 0.16666667 
        0.16666667)
        (0.16666667 0.16666667 0.16666667 0.16666667 0.16666667 
        0.16666667)
        (0.16666667 0.16666667 0.16666667 0.16666667 0.16666667 
        0.16666667)
        (0.16666667 0.16666667 0.16666667 0.16666667 0.16666667 
        0.16666667)
        (0.16666667 0.16666667 0.16666667 0.16666667 0.16666667 
        0.16666667)
        (0.16666667 0.16666667 0.16666667 0.16666667 0.16666667 
        0.16666667))
        ((0.16666667 0.16666667 0.16666667 0.16666667 0.16666667 
        0.16666667)
        (0.16666667 0.16666667 0.16666667 0.16666667 0.16666667 
        0.16666667)
        (0.00092081 0.99539595 0.00092081 0.00092081 0.00092081 
        0.00092081)
        (0.16666667 0.16666667 0.16666667 0.16666667 0.16666667 
        0.16666667)
        (0.16666667 0.16666667 0.16666667 0.16666667 0.16666667 
        0.16666667)
        (0.16666667 0.16666667 0.16666667 0.16666667 0.16666667 
        0.16666667))
        ((0.16666667 0.16666667 0.16666667 0.16666667 0.16666667 
        0.16666667)
        (0.00046168 0.99769160 0.00046168 0.00046168 0.00046168 
        0.00046168)
        (0.16666667 0.16666667 0.16666667 0.16666667 0.16666667 
        0.16666667)
        (0.16666667 0.16666667 0.16666667 0.16666667 0.16666667 
        0.16666667)
        (0.16666667 0.16666667 0.16666667 0.16666667 0.16666667 
        0.16666667)
        (0.16666667 0.16666667 0.16666667 0.16666667 0.16666667 
        0.16666667))
        ((0.16666667 0.16666667 0.16666667 0.16666667 0.16666667 
        0.16666667)
        (0.00046168 0.00046168 0.99769160 0.00046168 0.00046168 
        0.00046168)
        (0.16666667 0.16666667 0.16666667 0.16666667 0.16666667 
        0.16666667)
        (0.16666667 0.16666667 0.16666667 0.16666667 0.16666667 
        0.16666667)
        (0.16666667 0.16666667 0.16666667 0.16666667 0.16666667 
        0.16666667)
        (0.16666667 0.16666667 0.16666667 0.16666667 0.16666667 
        0.16666667))
        ((0.16666667 0.16666667 0.16666667 0.16666667 0.16666667 
        0.16666667)
        (0.16666667 0.16666667 0.16666667 0.16666667 0.16666667 
        0.16666667)
        (0.16666667 0.16666667 0.16666667 0.16666667 0.16666667 
        0.16666667)
        (0.16666667 0.16666667 0.16666667 0.16666667 0.16666667 
        0.16666667)
        (0.16666667 0.16666667 0.16666667 0.16666667 0.16666667 
        0.16666667)
        (0.16666667 0.16666667 0.16666667 0.16666667 0.16666667 
        0.16666667))
        ((0.16666667 0.16666667 0.16666667 0.16666667 0.16666667 
        0.16666667)
        (0.16666667 0.16666667 0.16666667 0.16666667 0.16666667 
        0.16666667)
        (0.16666667 0.16666667 0.16666667 0.16666667 0.16666667 
        0.16666667)
        (0.16666667 0.16666667 0.16666667 0.16666667 0.16666667 
        0.16666667)
        (0.16666667 0.16666667 0.16666667 0.16666667 0.16666667 
        0.16666667)
        (0.16666667 0.16666667 0.16666667 0.16666667 0.16666667 
        0.16666667)))
        (((0.16666667 0.16666667 0.16666667 0.16666667 0.16666667 
        0.16666667)
        (0.00092081 0.99539595 0.00092081 0.00092081 0.00092081 
        0.00092081)
        (0.16666667 0.16666667 0.16666667 0.16666667 0.16666667 
        0.16666667)
        (0.16666667 0.16666667 0.16666667 0.16666667 0.16666667 
        0.16666667)
        (0.16666667 0.16666667 0.16666667 0.16666667 0.16666667 
        0.16666667)
        (0.16666667 0.16666667 0.16666667 0.16666667 0.16666667 
        0.16666667))
        ((0.16666667 0.16666667 0.16666667 0.16666667 0.16666667 
        0.16666667)
        (0.00092081 0.99539595 0.00092081 0.00092081 0.00092081 
        0.00092081)
        (0.00030807 0.33302526 0.00030807 0.66574245 0.00030807 
        0.00030807)
        (0.16666667 0.16666667 0.16666667 0.16666667 0.16666667 
        0.16666667)
        (0.16666667 0.16666667 0.16666667 0.16666667 0.16666667 
        0.16666667)
        (0.16666667 0.16666667 0.16666667 0.16666667 0.16666667 
        0.16666667))
        ((0.16666667 0.16666667 0.16666667 0.16666667 0.16666667 
        0.16666667)
        (0.00046168 0.00046168 0.49907664 0.49907664 0.00046168 
        0.00046168)
        (0.00011566 0.12502892 0.49976868 0.37485542 0.00011566 
        0.00011566)
        (0.00046168 0.00046168 0.99769160 0.00046168 0.00046168 
        0.00046168)
        (0.16666667 0.16666667 0.16666667 0.16666667 0.16666667 
        0.16666667)
        (0.16666667 0.16666667 0.16666667 0.16666667 0.16666667 
        0.16666667))
        ((0.99539595 0.00092081 0.00092081 0.00092081 0.00092081 
        0.00092081)
        (0.00030807 0.66574245 0.00030807 0.33302526 0.00030807 
        0.00030807)
        (0.00030807 0.33302526 0.00030807 0.66574245 0.00030807 
        0.00030807)
        (0.00023116 0.00023116 0.24988442 0.74919094 0.00023116 
        0.00023116)
        (0.16666667 0.16666667 0.16666667 0.16666667 0.16666667 
        0.16666667)
        (0.16666667 0.16666667 0.16666667 0.16666667 0.16666667 
        0.16666667))
        ((0.00092081 0.99539595 0.00092081 0.00092081 0.00092081 
        0.00092081)
        (0.00046168 0.49907664 0.49907664 0.00046168 0.00046168 
        0.00046168)
        (0.16666667 0.16666667 0.16666667 0.16666667 0.16666667 
        0.16666667)
        (0.00046168 0.00046168 0.49907664 0.49907664 0.00046168 
        0.00046168)
        (0.16666667 0.16666667 0.16666667 0.16666667 0.16666667 
        0.16666667)
        (0.16666667 0.16666667 0.16666667 0.16666667 0.16666667 
        0.16666667))
        ((0.00046168 0.99769160 0.00046168 0.00046168 0.00046168 
        0.00046168)
        (0.16666667 0.16666667 0.16666667 0.16666667 0.16666667 
        0.16666667)
        (0.16666667 0.16666667 0.16666667 0.16666667 0.16666667 
        0.16666667)
        (0.16666667 0.16666667 0.16666667 0.16666667 0.16666667 
        0.16666667)
        (0.16666667 0.16666667 0.16666667 0.16666667 0.16666667 
        0.16666667)
        (0.16666667 0.16666667 0.16666667 0.16666667 0.16666667 
        0.16666667)))
        (((0.16666667 0.16666667 0.16666667 0.16666667 0.16666667 
        0.16666667)
        (0.16666667 0.16666667 0.16666667 0.16666667 0.16666667 
        0.16666667)
        (0.00092081 0.00092081 0.00092081 0.00092081 0.00092081 
        0.99539595)
        (0.16666667 0.16666667 0.16666667 0.16666667 0.16666667 
        0.16666667)
        (0.16666667 0.16666667 0.16666667 0.16666667 0.16666667 
        0.16666667)
        (0.16666667 0.16666667 0.16666667 0.16666667 0.16666667 
        0.16666667))
        ((0.16666667 0.16666667 0.16666667 0.16666667 0.16666667 
        0.16666667)
        (0.00023116 0.00023116 0.24988442 0.49953768 0.24988442 
        0.00023116)
        (0.00046168 0.00046168 0.00046168 0.99769160 0.00046168 
        0.00046168)
        (0.16666667 0.16666667 0.16666667 0.16666667 0.16666667 
        0.16666667)
        (0.00046168 0.00046168 0.00046168 0.00046168 0.99769160 
        0.00046168)
        (0.16666667 0.16666667 0.16666667 0.16666667 0.16666667 
        0.16666667))
        ((0.00092081 0.00092081 0.99539595 0.00092081 0.00092081 
        0.00092081)
        (0.07146634 0.14286659 0.28566708 0.49986776 0.00006611 
        0.00006611)
        (0.00010282 0.00010282 0.44427308 0.44427308 0.11114538 
        0.00010282)
        (0.00023116 0.00023116 0.74919094 0.24988442 0.00023116 
        0.00023116)
        (0.16666667 0.16666667 0.16666667 0.16666667 0.16666667 
        0.16666667)
        (0.16666667 0.16666667 0.16666667 0.16666667 0.16666667 
        0.16666667))
        ((0.49953768 0.00023116 0.24988442 0.24988442 0.00023116 
        0.00023116)
        (0.00013217 0.42836373 0.42836373 0.14287602 0.00013217 
        0.00013217)
        (0.00007119 0.07696142 0.23074182 0.61519296 0.07696142 
        0.00007119)
        (0.00092081 0.00092081 0.99539595 0.00092081 0.00092081 
        0.00092081)
        (0.16666667 0.16666667 0.16666667 0.16666667 0.16666667 
        0.16666667)
        (0.16666667 0.16666667 0.16666667 0.16666667 0.16666667 
        0.16666667))
        ((0.00030807 0.99845964 0.00030807 0.00030807 0.00030807 
        0.00030807)
        (0.00046168 0.49907664 0.49907664 0.00046168 0.00046168 
        0.00046168)
        (0.00092081 0.00092081 0.00092081 0.99539595 0.00092081 
        0.00092081)
        (0.00092081 0.00092081 0.00092081 0.00092081 0.99539595 
        0.00092081)
        (0.16666667 0.16666667 0.16666667 0.16666667 0.16666667 
        0.16666667)
        (0.16666667 0.16666667 0.16666667 0.16666667 0.16666667 
        0.16666667))
        ((0.99769160 0.00046168 0.00046168 0.00046168 0.00046168 
        0.00046168)
        (0.99769160 0.00046168 0.00046168 0.00046168 0.00046168 
        0.00046168)
        (0.00092081 0.00092081 0.99539595 0.00092081 0.00092081 
        0.00092081)
        (0.16666667 0.16666667 0.16666667 0.16666667 0.16666667 
        0.16666667)
        (0.00092081 0.00092081 0.00092081 0.00092081 0.99539595 
        0.00092081)
        (0.16666667 0.16666667 0.16666667 0.16666667 0.16666667 
        0.16666667)))
        (((0.16666667 0.16666667 0.16666667 0.16666667 0.16666667 
        0.16666667)
        (0.00092081 0.00092081 0.00092081 0.00092081 0.00092081 
        0.99539595)
        (0.16666667 0.16666667 0.16666667 0.16666667 0.16666667 
        0.16666667)
        (0.16666667 0.16666667 0.16666667 0.16666667 0.16666667 
        0.16666667)
        (0.16666667 0.16666667 0.16666667 0.16666667 0.16666667 
        0.16666667)
        (0.16666667 0.16666667 0.16666667 0.16666667 0.16666667 
        0.16666667))
        ((0.00030807 0.00030807 0.00030807 0.99845964 0.00030807 
        0.00030807)
        (0.00046168 0.49907664 0.00046168 0.00046168 0.49907664 
        0.00046168)
        (0.00030807 0.00030807 0.00030807 0.33302526 0.66574245 
        0.00030807)
        (0.00046168 0.00046168 0.49907664 0.00046168 0.00046168 
        0.49907664)
        (0.16666667 0.16666667 0.16666667 0.16666667 0.16666667 
        0.16666667)
        (0.16666667 0.16666667 0.16666667 0.16666667 0.16666667 
        0.16666667))
        ((0.16666667 0.16666667 0.16666667 0.16666667 0.16666667 
        0.16666667)
        (0.00011566 0.24994217 0.12502892 0.62468193 0.00011566 
        0.00011566)
        (0.00015418 0.00015418 0.33317916 0.49969164 0.16666667 
        0.00015418)
        (0.00092081 0.00092081 0.00092081 0.00092081 0.99539595 
        0.00092081)
        (0.16666667 0.16666667 0.16666667 0.16666667 0.16666667 
        0.16666667)
        (0.16666667 0.16666667 0.16666667 0.16666667 0.16666667 
        0.16666667))
        ((0.00046168 0.00046168 0.99769160 0.00046168 0.00046168 
        0.00046168)
        (0.39974103 0.19996300 0.19996300 0.19996300 0.00018498 
        0.00018498)
        (0.00046168 0.00046168 0.49907664 0.49907664 0.00046168 
        0.00046168)
        (0.00018498 0.19996300 0.19996300 0.59951905 0.00018498 
        0.00018498)
        (0.16666667 0.16666667 0.16666667 0.16666667 0.16666667 
        0.16666667)
        (0.16666667 0.16666667 0.16666667 0.16666667 0.16666667 
        0.16666667))
        ((0.16666667 0.16666667 0.16666667 0.16666667 0.16666667 
        0.16666667)
        (0.16666667 0.16666667 0.16666667 0.16666667 0.16666667 
        0.16666667)
        (0.00092081 0.00092081 0.00092081 0.99539595 0.00092081 
        0.00092081)
        (0.00030807 0.33302526 0.33302526 0.33302526 0.00030807 
        0.00030807)
        (0.16666667 0.16666667 0.16666667 0.16666667 0.16666667 
        0.16666667)
        (0.16666667 0.16666667 0.16666667 0.16666667 0.16666667 
        0.16666667))
        ((0.16666667 0.16666667 0.16666667 0.16666667 0.16666667 
        0.16666667)
        (0.16666667 0.16666667 0.16666667 0.16666667 0.16666667 
        0.16666667)
        (0.00092081 0.00092081 0.00092081 0.00092081 0.99539595 
        0.00092081)
        (0.16666667 0.16666667 0.16666667 0.16666667 0.16666667 
        0.16666667)
        (0.16666667 0.16666667 0.16666667 0.16666667 0.16666667 
        0.16666667)
        (0.16666667 0.16666667 0.16666667 0.16666667 0.16666667 
        0.16666667)))
        (((0.16666667 0.16666667 0.16666667 0.16666667 0.16666667 
        0.16666667)
        (0.16666667 0.16666667 0.16666667 0.16666667 0.16666667 
        0.16666667)
        (0.16666667 0.16666667 0.16666667 0.16666667 0.16666667 
        0.16666667)
        (0.16666667 0.16666667 0.16666667 0.16666667 0.16666667 
        0.16666667)
        (0.16666667 0.16666667 0.16666667 0.16666667 0.16666667 
        0.16666667)
        (0.16666667 0.16666667 0.16666667 0.16666667 0.16666667 
        0.16666667))
        ((0.16666667 0.16666667 0.16666667 0.16666667 0.16666667 
        0.16666667)
        (0.00092081 0.00092081 0.99539595 0.00092081 0.00092081 
        0.00092081)
        (0.00046168 0.00046168 0.00046168 0.99769160 0.00046168 
        0.00046168)
        (0.16666667 0.16666667 0.16666667 0.16666667 0.16666667 
        0.16666667)
        (0.16666667 0.16666667 0.16666667 0.16666667 0.16666667 
        0.16666667)
        (0.16666667 0.16666667 0.16666667 0.16666667 0.16666667 
        0.16666667))
        ((0.16666667 0.16666667 0.16666667 0.16666667 0.16666667 
        0.16666667)
        (0.16666667 0.16666667 0.16666667 0.16666667 0.16666667 
        0.16666667)
        (0.16666667 0.16666667 0.16666667 0.16666667 0.16666667 
        0.16666667)
        (0.16666667 0.16666667 0.16666667 0.16666667 0.16666667 
        0.16666667)
        (0.16666667 0.16666667 0.16666667 0.16666667 0.16666667 
        0.16666667)
        (0.16666667 0.16666667 0.16666667 0.16666667 0.16666667 
        0.16666667))
        ((0.16666667 0.16666667 0.16666667 0.16666667 0.16666667 
        0.16666667)
        (0.00092081 0.00092081 0.00092081 0.00092081 0.99539595 
        0.00092081)
        (0.16666667 0.16666667 0.16666667 0.16666667 0.16666667 
        0.16666667)
        (0.16666667 0.16666667 0.16666667 0.16666667 0.16666667 
        0.16666667)
        (0.16666667 0.16666667 0.16666667 0.16666667 0.16666667 
        0.16666667)
        (0.16666667 0.16666667 0.16666667 0.16666667 0.16666667 
        0.16666667))
        ((0.16666667 0.16666667 0.16666667 0.16666667 0.16666667 
        0.16666667)
        (0.16666667 0.16666667 0.16666667 0.16666667 0.16666667 
        0.16666667)
        (0.16666667 0.16666667 0.16666667 0.16666667 0.16666667 
        0.16666667)
        (0.16666667 0.16666667 0.16666667 0.16666667 0.16666667 
        0.16666667)
        (0.16666667 0.16666667 0.16666667 0.16666667 0.16666667 
        0.16666667)
        (0.16666667 0.16666667 0.16666667 0.16666667 0.16666667 
        0.16666667))
        ((0.16666667 0.16666667 0.16666667 0.16666667 0.16666667 
        0.16666667)
        (0.16666667 0.16666667 0.16666667 0.16666667 0.16666667 
        0.16666667)
        (0.16666667 0.16666667 0.16666667 0.16666667 0.16666667 
        0.16666667)
        (0.16666667 0.16666667 0.16666667 0.16666667 0.16666667 
        0.16666667)
        (0.16666667 0.16666667 0.16666667 0.16666667 0.16666667 
        0.16666667)
        (0.16666667 0.16666667 0.16666667 0.16666667 0.16666667 
        0.16666667))));
}

potential (self_esteem | extraversion self_conf)
{
    data = (((0.00806452 0.97580645 0.00806452 0.00806452)
        (0.00274725 0.99175824 0.00274725 0.00274725)
        (0.25000000 0.25000000 0.25000000 0.25000000)
        (0.25000000 0.25000000 0.25000000 0.25000000)
        (0.25000000 0.25000000 0.25000000 0.25000000)
        (0.25000000 0.25000000 0.25000000 0.25000000))
        ((0.00806452 0.00806452 0.97580645 0.00806452)
        (0.00103734 0.62344398 0.37448133 0.00103734)
        (0.00138122 0.33287293 0.66436464 0.00138122)
        (0.00059382 0.28562945 0.71318290 0.00059382)
        (0.25000000 0.25000000 0.25000000 0.25000000)
        (0.25000000 0.25000000 0.25000000 0.25000000))
        ((0.00806452 0.00806452 0.97580645 0.00806452)
        (0.00138122 0.16712707 0.83011050 0.00138122)
        (0.00039620 0.42828843 0.57091918 0.00039620)
        (0.00028703 0.27583238 0.65470723 0.06917336)
        (0.00165563 0.00165563 0.59768212 0.39900662)
        (0.00206612 0.00206612 0.49793388 0.49793388))
        ((0.25000000 0.25000000 0.25000000 0.25000000)
        (0.00274725 0.00274725 0.99175824 0.00274725)
        (0.00118483 0.00118483 0.71208531 0.28554502)
        (0.00059382 0.07185273 0.57066508 0.35688836)
        (0.00092251 0.00092251 0.44372694 0.55442804)
        (0.00165563 0.20033113 0.00165563 0.79635762))
        ((0.25000000 0.25000000 0.25000000 0.25000000)
        (0.00409836 0.00409836 0.98770492 0.00409836)
        (0.00409836 0.00409836 0.49590164 0.49590164)
        (0.00138122 0.16712707 0.49861879 0.33287293)
        (0.00092251 0.00092251 0.55442804 0.44372694)
        (0.00103734 0.00103734 0.25000000 0.74792531)));
}
